<?xml version="1.0"?>
<opencv_storage>
<cascade>
  <stageType>BOOST</stageType>
  <featureType>HAAR</featureType>
  <height>40</height>
  <width>40</width>
  <stageParams>
    <boostType>GAB</boostType>
    <minHitRate>9.9500000476837158e-01</minHitRate>
    <maxFalseAlarm>5.0000000000000000e-01</maxFalseAlarm>
    <weightTrimRate>9.4999999999999996e-01</weightTrimRate>
    <maxDepth>1</maxDepth>
    <maxWeakCount>100</maxWeakCount></stageParams>
  <featureParams>
    <maxCatCount>0</maxCatCount>
    <featSize>1</featSize>
    <mode>ALL</mode></featureParams>
  <stageNum>20</stageNum>
  <stages>
    <!-- stage 0 -->
    <_>
      <maxWeakCount>3</maxWeakCount>
      <stageThreshold>-6.6565418243408203e-01</stageThreshold>
      <weakClassifiers>
        <_>
          <internalNodes>
            0 -1 25 7.1655087172985077e-02</internalNodes>
          <leafValues>
            -7.5040000677108765e-01 7.1733331680297852e-01</leafValues></_>
        <_>
          <internalNodes>
            0 -1 194 -1.5325259417295456e-02</internalNodes>
          <leafValues>
            7.1843248605728149e-01 -5.6086999177932739e-01</leafValues></_>
        <_>
          <internalNodes>
            0 -1 65 3.2009689603000879e-03</internalNodes>
          <leafValues>
            -6.3270723819732666e-01 6.4561581611633301e-01</leafValues></_></weakClassifiers></_>
    <!-- stage 1 -->
    <_>
      <maxWeakCount>5</maxWeakCount>
      <stageThreshold>-8.9246153831481934e-01</stageThreshold>
      <weakClassifiers>
        <_>
          <internalNodes>
            0 -1 154 -2.5290478952229023e-03</internalNodes>
          <leafValues>
            2.8308823704719543e-01 -7.7631580829620361e-01</leafValues></_>
        <_>
          <internalNodes>
            0 -1 72 1.9898433238267899e-02</internalNodes>
          <leafValues>
            -5.6572431325912476e-01 4.9134343862533569e-01</leafValues></_>
        <_>
          <internalNodes>
            0 -1 92 -4.5774780213832855e-02</internalNodes>
          <leafValues>
            5.5039066076278687e-01 -5.0127071142196655e-01</leafValues></_>
        <_>
          <internalNodes>
            0 -1 8 -2.1711420267820358e-02</internalNodes>
          <leafValues>
            7.6108908653259277e-01 -3.1320750713348389e-01</leafValues></_>
        <_>
          <internalNodes>
            0 -1 46 4.4648679904639721e-03</internalNodes>
          <leafValues>
            -8.4700864553451538e-01 3.6137330532073975e-01</leafValues></_></weakClassifiers></_>
    <!-- stage 2 -->
    <_>
      <maxWeakCount>7</maxWeakCount>
      <stageThreshold>-1.4379304647445679e+00</stageThreshold>
      <weakClassifiers>
        <_>
          <internalNodes>
            0 -1 186 -2.2488456219434738e-02</internalNodes>
          <leafValues>
            5.2760738134384155e-01 -5.5192875862121582e-01</leafValues></_>
        <_>
          <internalNodes>
            0 -1 20 2.2118294145911932e-03</internalNodes>
          <leafValues>
            -4.6878850460052490e-01 5.6391602754592896e-01</leafValues></_>
        <_>
          <internalNodes>
            0 -1 62 -1.0219471529126167e-02</internalNodes>
          <leafValues>
            7.1615260839462280e-01 -4.0561571717262268e-01</leafValues></_>
        <_>
          <internalNodes>
            0 -1 168 -7.0841363631188869e-03</internalNodes>
          <leafValues>
            4.6706733107566833e-01 -5.9939724206924438e-01</leafValues></_>
        <_>
          <internalNodes>
            0 -1 58 -5.8027617633342743e-03</internalNodes>
          <leafValues>
            3.7010303139686584e-01 -5.2133709192276001e-01</leafValues></_>
        <_>
          <internalNodes>
            0 -1 116 -1.2542342301458120e-03</internalNodes>
          <leafValues>
            3.3895340561866760e-01 -4.9370449781417847e-01</leafValues></_>
        <_>
          <internalNodes>
            0 -1 30 3.2277638092637062e-03</internalNodes>
          <leafValues>
            -3.5506337881088257e-01 4.7771936655044556e-01</leafValues></_></weakClassifiers></_>
    <!-- stage 3 -->
    <_>
      <maxWeakCount>6</maxWeakCount>
      <stageThreshold>-8.6615651845932007e-01</stageThreshold>
      <weakClassifiers>
        <_>
          <internalNodes>
            0 -1 102 1.2678375467658043e-02</internalNodes>
          <leafValues>
            -5.8139532804489136e-01 4.9295774102210999e-01</leafValues></_>
        <_>
          <internalNodes>
            0 -1 121 -5.6852744892239571e-03</internalNodes>
          <leafValues>
            4.4644871354103088e-01 -4.0296995639801025e-01</leafValues></_>
        <_>
          <internalNodes>
            0 -1 76 -2.7949221432209015e-02</internalNodes>
          <leafValues>
            7.5186127424240112e-01 -2.7314373850822449e-01</leafValues></_>
        <_>
          <internalNodes>
            0 -1 87 1.0800156742334366e-02</internalNodes>
          <leafValues>
            -3.0093079805374146e-01 6.2440109252929688e-01</leafValues></_>
        <_>
          <internalNodes>
            0 -1 135 -1.5835851430892944e-02</internalNodes>
          <leafValues>
            -8.8786882162094116e-01 2.3909926414489746e-01</leafValues></_>
        <_>
          <internalNodes>
            0 -1 96 3.3916481770575047e-03</internalNodes>
          <leafValues>
            -3.7018477916717529e-01 4.8672407865524292e-01</leafValues></_></weakClassifiers></_>
    <!-- stage 4 -->
    <_>
      <maxWeakCount>8</maxWeakCount>
      <stageThreshold>-1.2975761890411377e+00</stageThreshold>
      <weakClassifiers>
        <_>
          <internalNodes>
            0 -1 17 4.2145583778619766e-02</internalNodes>
          <leafValues>
            -5.1588499546051025e-01 4.1592919826507568e-01</leafValues></_>
        <_>
          <internalNodes>
            0 -1 22 -3.2298183068633080e-03</internalNodes>
          <leafValues>
            5.0498223304748535e-01 -3.0811876058578491e-01</leafValues></_>
        <_>
          <internalNodes>
            0 -1 170 1.0790915228426456e-02</internalNodes>
          <leafValues>
            -3.1556063890457153e-01 4.9206048250198364e-01</leafValues></_>
        <_>
          <internalNodes>
            0 -1 94 -1.1546381749212742e-02</internalNodes>
          <leafValues>
            2.1871113777160645e-01 -7.0057255029678345e-01</leafValues></_>
        <_>
          <internalNodes>
            0 -1 151 3.1049544923007488e-03</internalNodes>
          <leafValues>
            1.9621974229812622e-01 -9.1420722007751465e-01</leafValues></_>
        <_>
          <internalNodes>
            0 -1 178 2.5030728429555893e-03</internalNodes>
          <leafValues>
            -3.9630767703056335e-01 4.0681368112564087e-01</leafValues></_>
        <_>
          <internalNodes>
            0 -1 149 1.2827724218368530e-02</internalNodes>
          <leafValues>
            -4.0109226107597351e-01 4.1144430637359619e-01</leafValues></_>
        <_>
          <internalNodes>
            0 -1 115 2.0590028725564480e-04</internalNodes>
          <leafValues>
            2.2800479829311371e-01 -5.8807927370071411e-01</leafValues></_></weakClassifiers></_>
    <!-- stage 5 -->
    <_>
      <maxWeakCount>9</maxWeakCount>
      <stageThreshold>-1.4010787010192871e+00</stageThreshold>
      <weakClassifiers>
        <_>
          <internalNodes>
            0 -1 57 3.2926898449659348e-02</internalNodes>
          <leafValues>
            -5.2980130910873413e-01 3.0303031206130981e-01</leafValues></_>
        <_>
          <internalNodes>
            0 -1 29 1.2193836271762848e-02</internalNodes>
          <leafValues>
            -5.1238757371902466e-01 3.4902992844581604e-01</leafValues></_>
        <_>
          <internalNodes>
            0 -1 140 -1.7136730253696442e-02</internalNodes>
          <leafValues>
            3.4233856201171875e-01 -5.0571668148040771e-01</leafValues></_>
        <_>
          <internalNodes>
            0 -1 174 -4.7722220420837402e-02</internalNodes>
          <leafValues>
            7.7483862638473511e-01 -1.4654532074928284e-01</leafValues></_>
        <_>
          <internalNodes>
            0 -1 14 4.0745303034782410e-02</internalNodes>
          <leafValues>
            -2.0523187518119812e-01 7.3485857248306274e-01</leafValues></_>
        <_>
          <internalNodes>
            0 -1 81 -2.3557788517791778e-04</internalNodes>
          <leafValues>
            3.6549642682075500e-01 -3.7458118796348572e-01</leafValues></_>
        <_>
          <internalNodes>
            0 -1 19 1.2409960618242621e-03</internalNodes>
          <leafValues>
            -1.8238680064678192e-01 7.6315873861312866e-01</leafValues></_>
        <_>
          <internalNodes>
            0 -1 98 3.8610817864537239e-03</internalNodes>
          <leafValues>
            -2.2098237276077271e-01 6.8930786848068237e-01</leafValues></_>
        <_>
          <internalNodes>
            0 -1 27 2.6842919178307056e-03</internalNodes>
          <leafValues>
            -3.7381348013877869e-01 3.9651134610176086e-01</leafValues></_></weakClassifiers></_>
    <!-- stage 6 -->
    <_>
      <maxWeakCount>9</maxWeakCount>
      <stageThreshold>-1.1037817001342773e+00</stageThreshold>
      <weakClassifiers>
        <_>
          <internalNodes>
            0 -1 195 1.0357661172747612e-02</internalNodes>
          <leafValues>
            -4.5557123422622681e-01 4.2268040776252747e-01</leafValues></_>
        <_>
          <internalNodes>
            0 -1 158 -5.2719586528837681e-04</internalNodes>
          <leafValues>
            2.2026193141937256e-01 -5.4220741987228394e-01</leafValues></_>
        <_>
          <internalNodes>
            0 -1 0 1.7534466460347176e-02</internalNodes>
          <leafValues>
            -4.0786877274513245e-01 3.1354933977127075e-01</leafValues></_>
        <_>
          <internalNodes>
            0 -1 114 3.1675063073635101e-03</internalNodes>
          <leafValues>
            -2.4721944332122803e-01 4.9259048700332642e-01</leafValues></_>
        <_>
          <internalNodes>
            0 -1 86 -3.4180143848061562e-03</internalNodes>
          <leafValues>
            -8.9937436580657959e-01 1.1662624031305313e-01</leafValues></_>
        <_>
          <internalNodes>
            0 -1 52 2.2332211956381798e-03</internalNodes>
          <leafValues>
            -4.2979753017425537e-01 2.7832466363906860e-01</leafValues></_>
        <_>
          <internalNodes>
            0 -1 75 1.3130242004990578e-03</internalNodes>
          <leafValues>
            1.6915448009967804e-01 -8.5692298412322998e-01</leafValues></_>
        <_>
          <internalNodes>
            0 -1 198 -7.4144249083474278e-04</internalNodes>
          <leafValues>
            6.0165101289749146e-01 -2.5014707446098328e-01</leafValues></_>
        <_>
          <internalNodes>
            0 -1 50 -5.3061857819557190e-02</internalNodes>
          <leafValues>
            6.1381614208221436e-01 -2.5437086820602417e-01</leafValues></_></weakClassifiers></_>
    <!-- stage 7 -->
    <_>
      <maxWeakCount>9</maxWeakCount>
      <stageThreshold>-1.3559725284576416e+00</stageThreshold>
      <weakClassifiers>
        <_>
          <internalNodes>
            0 -1 37 -1.8655575811862946e-02</internalNodes>
          <leafValues>
            5.6000000238418579e-01 -3.8999998569488525e-01</leafValues></_>
        <_>
          <internalNodes>
            0 -1 152 -1.8458815757185221e-03</internalNodes>
          <leafValues>
            -8.2922512292861938e-01 1.6436874866485596e-01</leafValues></_>
        <_>
          <internalNodes>
            0 -1 172 -5.3328104317188263e-02</internalNodes>
          <leafValues>
            6.1313676834106445e-01 -2.3271885514259338e-01</leafValues></_>
        <_>
          <internalNodes>
            0 -1 101 -6.0974265215918422e-04</internalNodes>
          <leafValues>
            -8.6008787155151367e-01 2.3153075575828552e-01</leafValues></_>
        <_>
          <internalNodes>
            0 -1 156 -2.6113573461771011e-02</internalNodes>
          <leafValues>
            3.3389642834663391e-01 -4.1249012947082520e-01</leafValues></_>
        <_>
          <internalNodes>
            0 -1 117 3.7235420313663781e-04</internalNodes>
          <leafValues>
            2.0108054578304291e-01 -7.3483276367187500e-01</leafValues></_>
        <_>
          <internalNodes>
            0 -1 199 -1.8777052173390985e-04</internalNodes>
          <leafValues>
            -5.3112024068832397e-01 2.3046839237213135e-01</leafValues></_>
        <_>
          <internalNodes>
            0 -1 104 1.4632700476795435e-03</internalNodes>
          <leafValues>
            -3.6235809326171875e-01 3.4319651126861572e-01</leafValues></_>
        <_>
          <internalNodes>
            0 -1 143 -6.3627178315073252e-04</internalNodes>
          <leafValues>
            -7.9023486375808716e-01 1.5005935728549957e-01</leafValues></_></weakClassifiers></_>
    <!-- stage 8 -->
    <_>
      <maxWeakCount>11</maxWeakCount>
      <stageThreshold>-1.1144058704376221e+00</stageThreshold>
      <weakClassifiers>
        <_>
          <internalNodes>
            0 -1 3 -2.5893826037645340e-02</internalNodes>
          <leafValues>
            2.8143712878227234e-01 -4.4144144654273987e-01</leafValues></_>
        <_>
          <internalNodes>
            0 -1 36 2.2943683434277773e-03</internalNodes>
          <leafValues>
            -3.1500223278999329e-01 4.0852993726730347e-01</leafValues></_>
        <_>
          <internalNodes>
            0 -1 163 -4.0852352976799011e-03</internalNodes>
          <leafValues>
            2.5316426157951355e-01 -4.7564366459846497e-01</leafValues></_>
        <_>
          <internalNodes>
            0 -1 39 -2.1067952737212181e-02</internalNodes>
          <leafValues>
            2.7496096491813660e-01 -4.8763573169708252e-01</leafValues></_>
        <_>
          <internalNodes>
            0 -1 200 2.1886410191655159e-02</internalNodes>
          <leafValues>
            -3.3177414536476135e-01 4.2992213368415833e-01</leafValues></_>
        <_>
          <internalNodes>
            0 -1 132 2.5754796341061592e-02</internalNodes>
          <leafValues>
            1.7368286848068237e-01 -8.7763208150863647e-01</leafValues></_>
        <_>
          <internalNodes>
            0 -1 112 1.0651277843862772e-03</internalNodes>
          <leafValues>
            -3.7179923057556152e-01 3.6580514907836914e-01</leafValues></_>
        <_>
          <internalNodes>
            0 -1 130 -9.4736588653177023e-04</internalNodes>
          <leafValues>
            -8.6246043443679810e-01 1.3670098781585693e-01</leafValues></_>
        <_>
          <internalNodes>
            0 -1 128 3.7965569645166397e-03</internalNodes>
          <leafValues>
            -3.2603308558464050e-01 3.9320009946823120e-01</leafValues></_>
        <_>
          <internalNodes>
            0 -1 127 -4.3085947254439816e-06</internalNodes>
          <leafValues>
            2.5960886478424072e-01 -4.4288253784179688e-01</leafValues></_>
        <_>
          <internalNodes>
            0 -1 2 -8.5298195481300354e-02</internalNodes>
          <leafValues>
            7.8757649660110474e-01 -1.5084438025951385e-01</leafValues></_></weakClassifiers></_>
    <!-- stage 9 -->
    <_>
      <maxWeakCount>11</maxWeakCount>
      <stageThreshold>-1.0240770578384399e+00</stageThreshold>
      <weakClassifiers>
        <_>
          <internalNodes>
            0 -1 180 -1.7898406833410263e-02</internalNodes>
          <leafValues>
            3.9473685622215271e-01 -3.7564766407012939e-01</leafValues></_>
        <_>
          <internalNodes>
            0 -1 99 -5.2429318428039551e-02</internalNodes>
          <leafValues>
            3.5980167984962463e-01 -3.0581778287887573e-01</leafValues></_>
        <_>
          <internalNodes>
            0 -1 106 -9.7891152836382389e-04</internalNodes>
          <leafValues>
            -7.1624481678009033e-01 1.1113867908716202e-01</leafValues></_>
        <_>
          <internalNodes>
            0 -1 109 2.2688060998916626e-03</internalNodes>
          <leafValues>
            -3.1763124465942383e-01 3.7844273447990417e-01</leafValues></_>
        <_>
          <internalNodes>
            0 -1 35 -6.8271551281213760e-03</internalNodes>
          <leafValues>
            6.3291329145431519e-01 -2.1053695678710938e-01</leafValues></_>
        <_>
          <internalNodes>
            0 -1 32 7.7490424737334251e-03</internalNodes>
          <leafValues>
            -3.9108061790466309e-01 3.7881660461425781e-01</leafValues></_>
        <_>
          <internalNodes>
            0 -1 74 3.5078276414424181e-04</internalNodes>
          <leafValues>
            -3.5607057809829712e-01 3.2143032550811768e-01</leafValues></_>
        <_>
          <internalNodes>
            0 -1 197 1.6270126216113567e-03</internalNodes>
          <leafValues>
            -2.3647385835647583e-01 4.9973309040069580e-01</leafValues></_>
        <_>
          <internalNodes>
            0 -1 185 6.2850402900949121e-04</internalNodes>
          <leafValues>
            1.3896709680557251e-01 -8.6393934488296509e-01</leafValues></_>
        <_>
          <internalNodes>
            0 -1 134 3.5074353218078613e-03</internalNodes>
          <leafValues>
            -4.4726386666297913e-01 2.4886733293533325e-01</leafValues></_>
        <_>
          <internalNodes>
            0 -1 122 2.5390926748514175e-03</internalNodes>
          <leafValues>
            1.3589854538440704e-01 -8.0967551469802856e-01</leafValues></_></weakClassifiers></_>
    <!-- stage 10 -->
    <_>
      <maxWeakCount>11</maxWeakCount>
      <stageThreshold>-1.2347307205200195e+00</stageThreshold>
      <weakClassifiers>
        <_>
          <internalNodes>
            0 -1 120 -3.6684437654912472e-03</internalNodes>
          <leafValues>
            -8.1395345926284790e-01 -3.1847134232521057e-02</leafValues></_>
        <_>
          <internalNodes>
            0 -1 175 2.9369918629527092e-03</internalNodes>
          <leafValues>
            -2.8777644038200378e-01 3.6834952235221863e-01</leafValues></_>
        <_>
          <internalNodes>
            0 -1 61 -8.3793587982654572e-03</internalNodes>
          <leafValues>
            4.3191686272621155e-01 -2.8529864549636841e-01</leafValues></_>
        <_>
          <internalNodes>
            0 -1 159 -4.6833589294692501e-05</internalNodes>
          <leafValues>
            2.6895430684089661e-01 -4.5380279421806335e-01</leafValues></_>
        <_>
          <internalNodes>
            0 -1 160 9.0914254542440176e-05</internalNodes>
          <leafValues>
            -4.0478220582008362e-01 3.2032287120819092e-01</leafValues></_>
        <_>
          <internalNodes>
            0 -1 155 1.1108518578112125e-02</internalNodes>
          <leafValues>
            -2.8717795014381409e-01 4.3231570720672607e-01</leafValues></_>
        <_>
          <internalNodes>
            0 -1 12 -7.0159723982214928e-03</internalNodes>
          <leafValues>
            5.1010251045227051e-01 -2.4278759956359863e-01</leafValues></_>
        <_>
          <internalNodes>
            0 -1 5 -6.4302878454327583e-03</internalNodes>
          <leafValues>
            5.1791125535964966e-01 -2.2371879220008850e-01</leafValues></_>
        <_>
          <internalNodes>
            0 -1 18 6.2150787562131882e-03</internalNodes>
          <leafValues>
            -1.1707665771245956e-01 7.9084956645965576e-01</leafValues></_>
        <_>
          <internalNodes>
            0 -1 201 7.5476500205695629e-04</internalNodes>
          <leafValues>
            1.7761904001235962e-01 -7.3588436841964722e-01</leafValues></_>
        <_>
          <internalNodes>
            0 -1 131 -3.7551805144175887e-04</internalNodes>
          <leafValues>
            1.9916142523288727e-01 -5.2118515968322754e-01</leafValues></_></weakClassifiers></_>
    <!-- stage 11 -->
    <_>
      <maxWeakCount>14</maxWeakCount>
      <stageThreshold>-1.2474681138992310e+00</stageThreshold>
      <weakClassifiers>
        <_>
          <internalNodes>
            0 -1 45 -1.2012206949293613e-02</internalNodes>
          <leafValues>
            2.8712871670722961e-01 -4.1176471114158630e-01</leafValues></_>
        <_>
          <internalNodes>
            0 -1 34 6.9248126819729805e-03</internalNodes>
          <leafValues>
            -3.2776418328285217e-01 3.1409242749214172e-01</leafValues></_>
        <_>
          <internalNodes>
            0 -1 124 1.5781758702360094e-04</internalNodes>
          <leafValues>
            -3.2760873436927795e-01 3.1210032105445862e-01</leafValues></_>
        <_>
          <internalNodes>
            0 -1 111 1.2271391460672021e-03</internalNodes>
          <leafValues>
            -2.6521807909011841e-01 4.0212038159370422e-01</leafValues></_>
        <_>
          <internalNodes>
            0 -1 56 1.0470061562955379e-02</internalNodes>
          <leafValues>
            -1.2238445132970810e-01 6.4638590812683105e-01</leafValues></_>
        <_>
          <internalNodes>
            0 -1 10 2.9743216931819916e-02</internalNodes>
          <leafValues>
            -5.2730739116668701e-01 1.8552346527576447e-01</leafValues></_>
        <_>
          <internalNodes>
            0 -1 208 -8.7256226688623428e-03</internalNodes>
          <leafValues>
            3.2326334714889526e-01 -3.5838767886161804e-01</leafValues></_>
        <_>
          <internalNodes>
            0 -1 147 4.2616850696504116e-03</internalNodes>
          <leafValues>
            -2.6110762357711792e-01 4.1946989297866821e-01</leafValues></_>
        <_>
          <internalNodes>
            0 -1 141 -5.1501661073416471e-04</internalNodes>
          <leafValues>
            2.6102957129478455e-01 -4.3613085150718689e-01</leafValues></_>
        <_>
          <internalNodes>
            0 -1 84 6.4385253936052322e-03</internalNodes>
          <leafValues>
            -2.0287568867206573e-01 5.4334384202957153e-01</leafValues></_>
        <_>
          <internalNodes>
            0 -1 165 2.9526017606258392e-02</internalNodes>
          <leafValues>
            -1.3960747420787811e-01 7.3901176452636719e-01</leafValues></_>
        <_>
          <internalNodes>
            0 -1 31 -9.5459502190351486e-03</internalNodes>
          <leafValues>
            4.4799593091011047e-01 -2.8184849023818970e-01</leafValues></_>
        <_>
          <internalNodes>
            0 -1 126 -2.7319882065057755e-02</internalNodes>
          <leafValues>
            4.1091188788414001e-01 -2.6870179176330566e-01</leafValues></_>
        <_>
          <internalNodes>
            0 -1 204 -3.4741035779006779e-04</internalNodes>
          <leafValues>
            4.8153024911880493e-01 -2.1778133511543274e-01</leafValues></_></weakClassifiers></_>
    <!-- stage 12 -->
    <_>
      <maxWeakCount>13</maxWeakCount>
      <stageThreshold>-9.2448908090591431e-01</stageThreshold>
      <weakClassifiers>
        <_>
          <internalNodes>
            0 -1 48 -1.2223277240991592e-02</internalNodes>
          <leafValues>
            3.9805826544761658e-01 -3.5516372323036194e-01</leafValues></_>
        <_>
          <internalNodes>
            0 -1 71 -3.6108426749706268e-02</internalNodes>
          <leafValues>
            -1. 8.6489856243133545e-02</leafValues></_>
        <_>
          <internalNodes>
            0 -1 44 -9.3330945819616318e-03</internalNodes>
          <leafValues>
            -8.5722571611404419e-01 1.2527902424335480e-01</leafValues></_>
        <_>
          <internalNodes>
            0 -1 171 3.6321242077974603e-05</internalNodes>
          <leafValues>
            1.7096567153930664e-01 -5.0635325908660889e-01</leafValues></_>
        <_>
          <internalNodes>
            0 -1 189 -9.0199625119566917e-03</internalNodes>
          <leafValues>
            4.5704856514930725e-01 -2.2417773306369781e-01</leafValues></_>
        <_>
          <internalNodes>
            0 -1 69 -3.9878878742456436e-03</internalNodes>
          <leafValues>
            5.1528447866439819e-01 -2.0877796411514282e-01</leafValues></_>
        <_>
          <internalNodes>
            0 -1 91 3.9254358853213489e-04</internalNodes>
          <leafValues>
            2.2893108427524567e-01 -4.5745682716369629e-01</leafValues></_>
        <_>
          <internalNodes>
            0 -1 67 -7.3960714507848024e-04</internalNodes>
          <leafValues>
            -6.4355164766311646e-01 1.3200588524341583e-01</leafValues></_>
        <_>
          <internalNodes>
            0 -1 26 -2.4585654027760029e-03</internalNodes>
          <leafValues>
            5.2284252643585205e-01 -1.9540981948375702e-01</leafValues></_>
        <_>
          <internalNodes>
            0 -1 6 -4.2124488390982151e-03</internalNodes>
          <leafValues>
            2.5164476037025452e-01 -3.9828163385391235e-01</leafValues></_>
        <_>
          <internalNodes>
            0 -1 176 -1.4010778977535665e-04</internalNodes>
          <leafValues>
            -5.3954911231994629e-01 1.6773849725723267e-01</leafValues></_>
        <_>
          <internalNodes>
            0 -1 60 -1.5097332652658224e-03</internalNodes>
          <leafValues>
            7.0013958215713501e-01 -1.5451426804065704e-01</leafValues></_>
        <_>
          <internalNodes>
            0 -1 80 8.6280060932040215e-03</internalNodes>
          <leafValues>
            -2.5670197606086731e-01 3.7774500250816345e-01</leafValues></_></weakClassifiers></_>
    <!-- stage 13 -->
    <_>
      <maxWeakCount>11</maxWeakCount>
      <stageThreshold>-1.0965021848678589e+00</stageThreshold>
      <weakClassifiers>
        <_>
          <internalNodes>
            0 -1 125 -3.0849087052047253e-03</internalNodes>
          <leafValues>
            7.1297988295555115e-02 -5.2759379148483276e-01</leafValues></_>
        <_>
          <internalNodes>
            0 -1 77 2.0858306437730789e-02</internalNodes>
          <leafValues>
            -2.1858078241348267e-01 4.3835026025772095e-01</leafValues></_>
        <_>
          <internalNodes>
            0 -1 42 -1.7365302890539169e-02</internalNodes>
          <leafValues>
            5.0958842039108276e-01 -1.9121201336383820e-01</leafValues></_>
        <_>
          <internalNodes>
            0 -1 49 5.9811947867274284e-03</internalNodes>
          <leafValues>
            -2.0968160033226013e-01 4.8568668961524963e-01</leafValues></_>
        <_>
          <internalNodes>
            0 -1 66 1.8189866095781326e-03</internalNodes>
          <leafValues>
            1.4753076434135437e-01 -7.8458619117736816e-01</leafValues></_>
        <_>
          <internalNodes>
            0 -1 153 2.0976597443223000e-03</internalNodes>
          <leafValues>
            9.8178945481777191e-02 -9.2173236608505249e-01</leafValues></_>
        <_>
          <internalNodes>
            0 -1 192 -9.7999372519552708e-04</internalNodes>
          <leafValues>
            3.4116831421852112e-01 -2.7821469306945801e-01</leafValues></_>
        <_>
          <internalNodes>
            0 -1 202 -7.5787180103361607e-03</internalNodes>
          <leafValues>
            5.1176291704177856e-01 -2.0218087732791901e-01</leafValues></_>
        <_>
          <internalNodes>
            0 -1 166 1.7133106011897326e-03</internalNodes>
          <leafValues>
            1.2556497752666473e-01 -8.0823469161987305e-01</leafValues></_>
        <_>
          <internalNodes>
            0 -1 78 -6.6095590591430664e-04</internalNodes>
          <leafValues>
            -9.2777091264724731e-01 8.7840437889099121e-02</leafValues></_>
        <_>
          <internalNodes>
            0 -1 70 -1.7655591946095228e-03</internalNodes>
          <leafValues>
            3.1182724237442017e-01 -3.1622001528739929e-01</leafValues></_></weakClassifiers></_>
    <!-- stage 14 -->
    <_>
      <maxWeakCount>14</maxWeakCount>
      <stageThreshold>-1.0658694505691528e+00</stageThreshold>
      <weakClassifiers>
        <_>
          <internalNodes>
            0 -1 203 1.5750788152217865e-03</internalNodes>
          <leafValues>
            -3.3333334326744080e-01 4.8466256260871887e-01</leafValues></_>
        <_>
          <internalNodes>
            0 -1 123 -1.0258394759148359e-03</internalNodes>
          <leafValues>
            2.8018721938133240e-01 -3.0062836408615112e-01</leafValues></_>
        <_>
          <internalNodes>
            0 -1 107 1.1443805415183306e-03</internalNodes>
          <leafValues>
            7.4343509972095490e-02 -8.2300728559494019e-01</leafValues></_>
        <_>
          <internalNodes>
            0 -1 184 -2.7357029466656968e-05</internalNodes>
          <leafValues>
            -4.4375282526016235e-01 2.4927861988544464e-01</leafValues></_>
        <_>
          <internalNodes>
            0 -1 103 2.0043711992911994e-04</internalNodes>
          <leafValues>
            -3.6759319901466370e-01 2.2378060221672058e-01</leafValues></_>
        <_>
          <internalNodes>
            0 -1 68 1.5357960015535355e-02</internalNodes>
          <leafValues>
            1.5611349046230316e-01 -7.1125704050064087e-01</leafValues></_>
        <_>
          <internalNodes>
            0 -1 97 9.3088927678763866e-04</internalNodes>
          <leafValues>
            -2.7064830064773560e-01 3.9727070927619934e-01</leafValues></_>
        <_>
          <internalNodes>
            0 -1 161 -3.5644567105919123e-04</internalNodes>
          <leafValues>
            -5.2369076013565063e-01 1.8023623526096344e-01</leafValues></_>
        <_>
          <internalNodes>
            0 -1 13 -5.6928000412881374e-04</internalNodes>
          <leafValues>
            5.4106384515762329e-01 -1.8149647116661072e-01</leafValues></_>
        <_>
          <internalNodes>
            0 -1 179 -2.5005028583109379e-03</internalNodes>
          <leafValues>
            -5.9028333425521851e-01 1.7633268237113953e-01</leafValues></_>
        <_>
          <internalNodes>
            0 -1 150 4.3861968442797661e-03</internalNodes>
          <leafValues>
            -2.7496597170829773e-01 3.9714536070823669e-01</leafValues></_>
        <_>
          <internalNodes>
            0 -1 177 -6.9925392745062709e-04</internalNodes>
          <leafValues>
            -5.8742833137512207e-01 1.7208048701286316e-01</leafValues></_>
        <_>
          <internalNodes>
            0 -1 41 3.9527597837150097e-03</internalNodes>
          <leafValues>
            -1.5504573285579681e-01 7.1047800779342651e-01</leafValues></_>
        <_>
          <internalNodes>
            0 -1 144 -1.8199278274551034e-03</internalNodes>
          <leafValues>
            -9.8006016016006470e-01 1.1543392390012741e-01</leafValues></_></weakClassifiers></_>
    <!-- stage 15 -->
    <_>
      <maxWeakCount>15</maxWeakCount>
      <stageThreshold>-1.1976585388183594e+00</stageThreshold>
      <weakClassifiers>
        <_>
          <internalNodes>
            0 -1 55 -2.1200387272983789e-03</internalNodes>
          <leafValues>
            1.1159737408161163e-01 -4.6224677562713623e-01</leafValues></_>
        <_>
          <internalNodes>
            0 -1 167 -1.4627391647081822e-04</internalNodes>
          <leafValues>
            1.9468516111373901e-01 -4.2202717065811157e-01</leafValues></_>
        <_>
          <internalNodes>
            0 -1 118 2.2999113425612450e-02</internalNodes>
          <leafValues>
            8.5840761661529541e-02 -9.3094116449356079e-01</leafValues></_>
        <_>
          <internalNodes>
            0 -1 64 4.6752649359405041e-03</internalNodes>
          <leafValues>
            -4.8293581604957581e-01 1.9700308144092560e-01</leafValues></_>
        <_>
          <internalNodes>
            0 -1 79 1.7642769962549210e-02</internalNodes>
          <leafValues>
            1.5787287056446075e-01 -5.1099568605422974e-01</leafValues></_>
        <_>
          <internalNodes>
            0 -1 1 -5.8161504566669464e-03</internalNodes>
          <leafValues>
            2.6447612047195435e-01 -3.3769229054450989e-01</leafValues></_>
        <_>
          <internalNodes>
            0 -1 157 1.5950431115925312e-03</internalNodes>
          <leafValues>
            9.4488389790058136e-02 -8.0241811275482178e-01</leafValues></_>
        <_>
          <internalNodes>
            0 -1 23 1.5408347826451063e-04</internalNodes>
          <leafValues>
            1.8468444049358368e-01 -4.9355584383010864e-01</leafValues></_>
        <_>
          <internalNodes>
            0 -1 83 1.4445415581576526e-04</internalNodes>
          <leafValues>
            -2.4713583290576935e-01 3.8714951276779175e-01</leafValues></_>
        <_>
          <internalNodes>
            0 -1 33 2.3216768749989569e-04</internalNodes>
          <leafValues>
            2.0049057900905609e-01 -4.4823601841926575e-01</leafValues></_>
        <_>
          <internalNodes>
            0 -1 113 -1.2394306249916553e-03</internalNodes>
          <leafValues>
            3.0629631876945496e-01 -3.0699917674064636e-01</leafValues></_>
        <_>
          <internalNodes>
            0 -1 51 1.8184341490268707e-02</internalNodes>
          <leafValues>
            -5.6542509794235229e-01 1.4509569108486176e-01</leafValues></_>
        <_>
          <internalNodes>
            0 -1 190 1.7914103809744120e-03</internalNodes>
          <leafValues>
            -2.9814773797988892e-01 3.4028127789497375e-01</leafValues></_>
        <_>
          <internalNodes>
            0 -1 138 5.5191754654515535e-05</internalNodes>
          <leafValues>
            2.1097263693809509e-01 -4.7090899944305420e-01</leafValues></_>
        <_>
          <internalNodes>
            0 -1 63 -1.1626079212874174e-03</internalNodes>
          <leafValues>
            3.9870974421501160e-01 -2.5520002841949463e-01</leafValues></_></weakClassifiers></_>
    <!-- stage 16 -->
    <_>
      <maxWeakCount>13</maxWeakCount>
      <stageThreshold>-1.1155234575271606e+00</stageThreshold>
      <weakClassifiers>
        <_>
          <internalNodes>
            0 -1 88 1.7414979636669159e-02</internalNodes>
          <leafValues>
            -4.5811051130294800e-01 1.2984055280685425e-01</leafValues></_>
        <_>
          <internalNodes>
            0 -1 182 8.6156243924051523e-04</internalNodes>
          <leafValues>
            1.0094940662384033e-01 -8.2122099399566650e-01</leafValues></_>
        <_>
          <internalNodes>
            0 -1 54 9.6983127295970917e-03</internalNodes>
          <leafValues>
            -1.6136690974235535e-01 5.5186104774475098e-01</leafValues></_>
        <_>
          <internalNodes>
            0 -1 110 -2.9728434979915619e-02</internalNodes>
          <leafValues>
            -9.8691713809967041e-01 1.2497830390930176e-01</leafValues></_>
        <_>
          <internalNodes>
            0 -1 89 -2.0285900682210922e-03</internalNodes>
          <leafValues>
            4.5190513134002686e-01 -2.3901641368865967e-01</leafValues></_>
        <_>
          <internalNodes>
            0 -1 7 -7.1877107024192810e-02</internalNodes>
          <leafValues>
            6.3598150014877319e-01 -1.4818322658538818e-01</leafValues></_>
        <_>
          <internalNodes>
            0 -1 146 2.5384765467606485e-04</internalNodes>
          <leafValues>
            1.0872348397970200e-01 -7.7008450031280518e-01</leafValues></_>
        <_>
          <internalNodes>
            0 -1 100 -6.5307674231007695e-04</internalNodes>
          <leafValues>
            3.7232679128646851e-01 -2.4103106558322906e-01</leafValues></_>
        <_>
          <internalNodes>
            0 -1 105 -1.8133677076548338e-03</internalNodes>
          <leafValues>
            5.6151616573333740e-01 -1.5764267742633820e-01</leafValues></_>
        <_>
          <internalNodes>
            0 -1 119 -2.1214475855231285e-03</internalNodes>
          <leafValues>
            -6.9449394941329956e-01 1.5272568166255951e-01</leafValues></_>
        <_>
          <internalNodes>
            0 -1 28 -7.4483216740190983e-03</internalNodes>
          <leafValues>
            5.2958709001541138e-01 -1.9635196030139923e-01</leafValues></_>
        <_>
          <internalNodes>
            0 -1 137 1.0977321071550250e-03</internalNodes>
          <leafValues>
            9.8458878695964813e-02 -8.2705193758010864e-01</leafValues></_>
        <_>
          <internalNodes>
            0 -1 162 1.6883928328752518e-03</internalNodes>
          <leafValues>
            8.8230006396770477e-02 -8.3743405342102051e-01</leafValues></_></weakClassifiers></_>
    <!-- stage 17 -->
    <_>
      <maxWeakCount>14</maxWeakCount>
      <stageThreshold>-1.2398803234100342e+00</stageThreshold>
      <weakClassifiers>
        <_>
          <internalNodes>
            0 -1 188 -1.1966550722718239e-02</internalNodes>
          <leafValues>
            4.0271493792533875e-01 -3.7098845839500427e-01</leafValues></_>
        <_>
          <internalNodes>
            0 -1 191 1.1432773899286985e-03</internalNodes>
          <leafValues>
            -1.5209062397480011e-01 6.0935342311859131e-01</leafValues></_>
        <_>
          <internalNodes>
            0 -1 95 -1.6382848843932152e-03</internalNodes>
          <leafValues>
            3.9378672838211060e-01 -2.3269535601139069e-01</leafValues></_>
        <_>
          <internalNodes>
            0 -1 207 7.6014664955437183e-04</internalNodes>
          <leafValues>
            -1.8251842260360718e-01 4.4970056414604187e-01</leafValues></_>
        <_>
          <internalNodes>
            0 -1 206 -2.0279888063669205e-02</internalNodes>
          <leafValues>
            5.4267984628677368e-01 -1.7943060398101807e-01</leafValues></_>
        <_>
          <internalNodes>
            0 -1 82 6.2686409801244736e-03</internalNodes>
          <leafValues>
            1.6468465328216553e-01 -6.7022687196731567e-01</leafValues></_>
        <_>
          <internalNodes>
            0 -1 90 8.8590860832482576e-04</internalNodes>
          <leafValues>
            -2.9411572217941284e-01 3.4207877516746521e-01</leafValues></_>
        <_>
          <internalNodes>
            0 -1 196 1.9844265189021826e-03</internalNodes>
          <leafValues>
            -1.7157445847988129e-01 4.8506659269332886e-01</leafValues></_>
        <_>
          <internalNodes>
            0 -1 43 2.3887986317276955e-03</internalNodes>
          <leafValues>
            -2.3168076574802399e-01 3.9367991685867310e-01</leafValues></_>
        <_>
          <internalNodes>
            0 -1 129 -1.5158419264480472e-03</internalNodes>
          <leafValues>
            3.3963924646377563e-01 -2.8600704669952393e-01</leafValues></_>
        <_>
          <internalNodes>
            0 -1 4 -9.7202472388744354e-03</internalNodes>
          <leafValues>
            5.6742382049560547e-01 -1.5539638698101044e-01</leafValues></_>
        <_>
          <internalNodes>
            0 -1 108 -4.1939772199839354e-04</internalNodes>
          <leafValues>
            -6.7189377546310425e-01 1.6971550881862640e-01</leafValues></_>
        <_>
          <internalNodes>
            0 -1 38 1.0164838284254074e-02</internalNodes>
          <leafValues>
            -2.0743657648563385e-01 5.2029335498809814e-01</leafValues></_>
        <_>
          <internalNodes>
            0 -1 139 2.1659256890416145e-03</internalNodes>
          <leafValues>
            1.6754345595836639e-01 -5.5921596288681030e-01</leafValues></_></weakClassifiers></_>
    <!-- stage 18 -->
    <_>
      <maxWeakCount>12</maxWeakCount>
      <stageThreshold>-9.1728860139846802e-01</stageThreshold>
      <weakClassifiers>
        <_>
          <internalNodes>
            0 -1 9 -2.0677270367741585e-02</internalNodes>
          <leafValues>
            3.7383177876472473e-01 -3.5623410344123840e-01</leafValues></_>
        <_>
          <internalNodes>
            0 -1 145 1.2206527171656489e-03</internalNodes>
          <leafValues>
            -2.3592293262481689e-01 4.0826958417892456e-01</leafValues></_>
        <_>
          <internalNodes>
            0 -1 85 2.4458970874547958e-02</internalNodes>
          <leafValues>
            -2.1646203100681305e-01 6.2778580188751221e-01</leafValues></_>
        <_>
          <internalNodes>
            0 -1 169 7.5616249814629555e-03</internalNodes>
          <leafValues>
            1.7094440758228302e-01 -8.4036761522293091e-01</leafValues></_>
        <_>
          <internalNodes>
            0 -1 205 -6.6546946763992310e-03</internalNodes>
          <leafValues>
            2.2742818295955658e-01 -4.9108105897903442e-01</leafValues></_>
        <_>
          <internalNodes>
            0 -1 173 -3.5939936060458422e-04</internalNodes>
          <leafValues>
            -4.8809340596199036e-01 2.2253723442554474e-01</leafValues></_>
        <_>
          <internalNodes>
            0 -1 136 -6.8358900025486946e-03</internalNodes>
          <leafValues>
            1.7157384753227234e-01 -5.5562412738800049e-01</leafValues></_>
        <_>
          <internalNodes>
            0 -1 193 -1.1426297947764397e-02</internalNodes>
          <leafValues>
            3.4958028793334961e-01 -3.0173605680465698e-01</leafValues></_>
        <_>
          <internalNodes>
            0 -1 181 1.7767436802387238e-03</internalNodes>
          <leafValues>
            8.6502611637115479e-02 -9.5158815383911133e-01</leafValues></_>
        <_>
          <internalNodes>
            0 -1 133 5.9303955640643835e-04</internalNodes>
          <leafValues>
            -3.0791276693344116e-01 3.4781605005264282e-01</leafValues></_>
        <_>
          <internalNodes>
            0 -1 93 -5.6176615180447698e-04</internalNodes>
          <leafValues>
            -6.8188023567199707e-01 1.5756419301033020e-01</leafValues></_>
        <_>
          <internalNodes>
            0 -1 47 1.6578736249357462e-03</internalNodes>
          <leafValues>
            -4.7279077768325806e-01 2.0835791528224945e-01</leafValues></_></weakClassifiers></_>
    <!-- stage 19 -->
    <_>
      <maxWeakCount>14</maxWeakCount>
      <stageThreshold>-1.0702553987503052e+00</stageThreshold>
      <weakClassifiers>
        <_>
          <internalNodes>
            0 -1 15 -3.3551615197211504e-03</internalNodes>
          <leafValues>
            2.2543352842330933e-01 -4.2507645487785339e-01</leafValues></_>
        <_>
          <internalNodes>
            0 -1 142 9.9737127311527729e-04</internalNodes>
          <leafValues>
            -3.8337802886962891e-01 2.4661642313003540e-01</leafValues></_>
        <_>
          <internalNodes>
            0 -1 59 2.0779720216523856e-04</internalNodes>
          <leafValues>
            -2.5604841113090515e-01 3.9318430423736572e-01</leafValues></_>
        <_>
          <internalNodes>
            0 -1 24 1.4216927811503410e-02</internalNodes>
          <leafValues>
            -3.2195499539375305e-01 3.2110634446144104e-01</leafValues></_>
        <_>
          <internalNodes>
            0 -1 187 2.0014820620417595e-03</internalNodes>
          <leafValues>
            -1.1037272959947586e-01 7.4830454587936401e-01</leafValues></_>
        <_>
          <internalNodes>
            0 -1 11 -2.0756151061505079e-03</internalNodes>
          <leafValues>
            7.6359021663665771e-01 -1.7402310669422150e-01</leafValues></_>
        <_>
          <internalNodes>
            0 -1 16 2.5939930230379105e-02</internalNodes>
          <leafValues>
            -3.2191988825798035e-01 2.9651314020156860e-01</leafValues></_>
        <_>
          <internalNodes>
            0 -1 164 -2.3885611444711685e-03</internalNodes>
          <leafValues>
            3.2528939843177795e-01 -3.1907492876052856e-01</leafValues></_>
        <_>
          <internalNodes>
            0 -1 21 1.0041001223726198e-04</internalNodes>
          <leafValues>
            2.4062357842922211e-01 -4.4194501638412476e-01</leafValues></_>
        <_>
          <internalNodes>
            0 -1 148 -3.5159438848495483e-03</internalNodes>
          <leafValues>
            3.5421821475028992e-01 -3.0509522557258606e-01</leafValues></_>
        <_>
          <internalNodes>
            0 -1 53 8.4638230502605438e-02</internalNodes>
          <leafValues>
            1.3407985866069794e-01 -7.8863745927810669e-01</leafValues></_>
        <_>
          <internalNodes>
            0 -1 40 1.2989407405257225e-03</internalNodes>
          <leafValues>
            -3.0368202924728394e-01 3.6808118224143982e-01</leafValues></_>
        <_>
          <internalNodes>
            0 -1 183 1.3486638665199280e-02</internalNodes>
          <leafValues>
            9.4407297670841217e-02 -9.3323326110839844e-01</leafValues></_>
        <_>
          <internalNodes>
            0 -1 73 4.6105034649372101e-02</internalNodes>
          <leafValues>
            1.1976528912782669e-01 -7.3318642377853394e-01</leafValues></_></weakClassifiers></_></stages>
  <features>
    <_>
      <rects>
        <_>
          0 2 12 26 -1.</_>
        <_>
          0 2 6 13 2.</_>
        <_>
          6 15 6 13 2.</_></rects>
      <tilted>0</tilted></_>
    <_>
      <rects>
        <_>
          0 22 23 6 -1.</_>
        <_>
          0 25 23 3 2.</_></rects>
      <tilted>0</tilted></_>
    <_>
      <rects>
        <_>
          1 0 39 3 -1.</_>
        <_>
          14 1 13 1 9.</_></rects>
      <tilted>0</tilted></_>
    <_>
      <rects>
        <_>
          1 0 38 6 -1.</_>
        <_>
          1 3 38 3 2.</_></rects>
      <tilted>0</tilted></_>
    <_>
      <rects>
        <_>
          1 8 12 5 -1.</_>
        <_>
          7 8 6 5 2.</_></rects>
      <tilted>0</tilted></_>
    <_>
      <rects>
        <_>
          1 18 9 3 -1.</_>
        <_>
          4 18 3 3 3.</_></rects>
      <tilted>0</tilted></_>
    <_>
      <rects>
        <_>
          2 0 11 24 -1.</_>
        <_>
          2 6 11 12 2.</_></rects>
      <tilted>0</tilted></_>
    <_>
      <rects>
        <_>
          2 0 36 3 -1.</_>
        <_>
          14 1 12 1 9.</_></rects>
      <tilted>0</tilted></_>
    <_>
      <rects>
        <_>
          2 0 12 8 -1.</_>
        <_>
          2 4 12 4 2.</_></rects>
      <tilted>0</tilted></_>
    <_>
      <rects>
        <_>
          2 2 20 8 -1.</_>
        <_>
          2 4 20 4 2.</_></rects>
      <tilted>0</tilted></_>
    <_>
      <rects>
        <_>
          2 5 31 28 -1.</_>
        <_>
          2 12 31 14 2.</_></rects>
      <tilted>0</tilted></_>
    <_>
      <rects>
        <_>
          2 11 2 14 -1.</_>
        <_>
          2 11 1 7 2.</_>
        <_>
          3 18 1 7 2.</_></rects>
      <tilted>0</tilted></_>
    <_>
      <rects>
        <_>
          2 17 6 18 -1.</_>
        <_>
          2 17 3 9 2.</_>
        <_>
          5 26 3 9 2.</_></rects>
      <tilted>0</tilted></_>
    <_>
      <rects>
        <_>
          2 21 4 1 -1.</_>
        <_>
          3 21 2 1 2.</_></rects>
      <tilted>0</tilted></_>
    <_>
      <rects>
        <_>
          3 0 22 10 -1.</_>
        <_>
          3 0 11 5 2.</_>
        <_>
          14 5 11 5 2.</_></rects>
      <tilted>0</tilted></_>
    <_>
      <rects>
        <_>
          3 0 28 2 -1.</_>
        <_>
          3 1 28 1 2.</_></rects>
      <tilted>0</tilted></_>
    <_>
      <rects>
        <_>
          3 4 18 25 -1.</_>
        <_>
          9 4 6 25 3.</_></rects>
      <tilted>0</tilted></_>
    <_>
      <rects>
        <_>
          3 12 32 5 -1.</_>
        <_>
          11 12 16 5 2.</_></rects>
      <tilted>0</tilted></_>
    <_>
      <rects>
        <_>
          3 13 6 7 -1.</_>
        <_>
          5 13 2 7 3.</_></rects>
      <tilted>0</tilted></_>
    <_>
      <rects>
        <_>
          3 16 2 8 -1.</_>
        <_>
          3 16 1 4 2.</_>
        <_>
          4 20 1 4 2.</_></rects>
      <tilted>0</tilted></_>
    <_>
      <rects>
        <_>
          3 16 8 2 -1.</_>
        <_>
          7 16 4 2 2.</_></rects>
      <tilted>0</tilted></_>
    <_>
      <rects>
        <_>
          4 0 2 1 -1.</_>
        <_>
          4 0 1 1 2.</_></rects>
      <tilted>1</tilted></_>
    <_>
      <rects>
        <_>
          4 0 30 2 -1.</_>
        <_>
          4 1 30 1 2.</_></rects>
      <tilted>0</tilted></_>
    <_>
      <rects>
        <_>
          4 1 6 2 -1.</_>
        <_>
          4 1 3 1 2.</_>
        <_>
          7 2 3 1 2.</_></rects>
      <tilted>0</tilted></_>
    <_>
      <rects>
        <_>
          4 7 16 12 -1.</_>
        <_>
          4 11 16 4 3.</_></rects>
      <tilted>0</tilted></_>
    <_>
      <rects>
        <_>
          4 9 32 21 -1.</_>
        <_>
          12 9 16 21 2.</_></rects>
      <tilted>0</tilted></_>
    <_>
      <rects>
        <_>
          4 13 2 26 -1.</_>
        <_>
          4 13 1 13 2.</_>
        <_>
          5 26 1 13 2.</_></rects>
      <tilted>0</tilted></_>
    <_>
      <rects>
        <_>
          4 13 6 8 -1.</_>
        <_>
          7 13 3 8 2.</_></rects>
      <tilted>0</tilted></_>
    <_>
      <rects>
        <_>
          4 16 4 20 -1.</_>
        <_>
          4 16 2 10 2.</_>
        <_>
          6 26 2 10 2.</_></rects>
      <tilted>0</tilted></_>
    <_>
      <rects>
        <_>
          4 18 10 16 -1.</_>
        <_>
          9 18 5 16 2.</_></rects>
      <tilted>0</tilted></_>
    <_>
      <rects>
        <_>
          4 19 6 6 -1.</_>
        <_>
          7 19 3 6 2.</_></rects>
      <tilted>0</tilted></_>
    <_>
      <rects>
        <_>
          4 23 8 16 -1.</_>
        <_>
          4 23 4 8 2.</_>
        <_>
          8 31 4 8 2.</_></rects>
      <tilted>0</tilted></_>
    <_>
      <rects>
        <_>
          4 24 10 14 -1.</_>
        <_>
          9 24 5 14 2.</_></rects>
      <tilted>0</tilted></_>
    <_>
      <rects>
        <_>
          5 5 3 3 -1.</_>
        <_>
          6 6 1 1 9.</_></rects>
      <tilted>0</tilted></_>
    <_>
      <rects>
        <_>
          5 8 6 12 -1.</_>
        <_>
          8 8 3 12 2.</_></rects>
      <tilted>0</tilted></_>
    <_>
      <rects>
        <_>
          6 1 16 1 -1.</_>
        <_>
          14 1 8 1 2.</_></rects>
      <tilted>0</tilted></_>
    <_>
      <rects>
        <_>
          6 6 2 28 -1.</_>
        <_>
          7 6 1 28 2.</_></rects>
      <tilted>0</tilted></_>
    <_>
      <rects>
        <_>
          7 0 8 7 -1.</_>
        <_>
          9 2 4 7 2.</_></rects>
      <tilted>1</tilted></_>
    <_>
      <rects>
        <_>
          7 21 13 6 -1.</_>
        <_>
          5 23 13 2 3.</_></rects>
      <tilted>1</tilted></_>
    <_>
      <rects>
        <_>
          7 21 16 18 -1.</_>
        <_>
          7 30 16 9 2.</_></rects>
      <tilted>0</tilted></_>
    <_>
      <rects>
        <_>
          7 22 16 4 -1.</_>
        <_>
          7 23 16 2 2.</_></rects>
      <tilted>0</tilted></_>
    <_>
      <rects>
        <_>
          7 23 9 3 -1.</_>
        <_>
          6 24 9 1 3.</_></rects>
      <tilted>1</tilted></_>
    <_>
      <rects>
        <_>
          8 0 8 6 -1.</_>
        <_>
          10 2 4 6 2.</_></rects>
      <tilted>1</tilted></_>
    <_>
      <rects>
        <_>
          8 11 2 25 -1.</_>
        <_>
          9 11 1 25 2.</_></rects>
      <tilted>0</tilted></_>
    <_>
      <rects>
        <_>
          8 17 20 6 -1.</_>
        <_>
          13 17 10 6 2.</_></rects>
      <tilted>0</tilted></_>
    <_>
      <rects>
        <_>
          9 0 23 4 -1.</_>
        <_>
          9 2 23 2 2.</_></rects>
      <tilted>0</tilted></_>
    <_>
      <rects>
        <_>
          9 7 27 6 -1.</_>
        <_>
          18 16 9 6 3.</_></rects>
      <tilted>1</tilted></_>
    <_>
      <rects>
        <_>
          9 11 15 5 -1.</_>
        <_>
          14 11 5 5 3.</_></rects>
      <tilted>0</tilted></_>
    <_>
      <rects>
        <_>
          9 16 9 9 -1.</_>
        <_>
          9 19 9 3 3.</_></rects>
      <tilted>0</tilted></_>
    <_>
      <rects>
        <_>
          10 1 6 6 -1.</_>
        <_>
          12 3 2 6 3.</_></rects>
      <tilted>1</tilted></_>
    <_>
      <rects>
        <_>
          10 1 12 10 -1.</_>
        <_>
          14 5 4 10 3.</_></rects>
      <tilted>1</tilted></_>
    <_>
      <rects>
        <_>
          10 2 30 4 -1.</_>
        <_>
          20 12 10 4 3.</_></rects>
      <tilted>1</tilted></_>
    <_>
      <rects>
        <_>
          10 9 8 3 -1.</_>
        <_>
          12 11 4 3 2.</_></rects>
      <tilted>1</tilted></_>
    <_>
      <rects>
        <_>
          10 11 30 20 -1.</_>
        <_>
          10 11 15 10 2.</_>
        <_>
          25 21 15 10 2.</_></rects>
      <tilted>0</tilted></_>
    <_>
      <rects>
        <_>
          10 13 7 9 -1.</_>
        <_>
          10 16 7 3 3.</_></rects>
      <tilted>0</tilted></_>
    <_>
      <rects>
        <_>
          11 0 3 6 -1.</_>
        <_>
          11 3 3 3 2.</_></rects>
      <tilted>0</tilted></_>
    <_>
      <rects>
        <_>
          11 3 4 8 -1.</_>
        <_>
          11 3 2 8 2.</_></rects>
      <tilted>1</tilted></_>
    <_>
      <rects>
        <_>
          11 5 16 15 -1.</_>
        <_>
          11 10 16 5 3.</_></rects>
      <tilted>0</tilted></_>
    <_>
      <rects>
        <_>
          11 22 8 10 -1.</_>
        <_>
          11 27 8 5 2.</_></rects>
      <tilted>0</tilted></_>
    <_>
      <rects>
        <_>
          11 27 4 1 -1.</_>
        <_>
          13 27 2 1 2.</_></rects>
      <tilted>0</tilted></_>
    <_>
      <rects>
        <_>
          12 0 4 1 -1.</_>
        <_>
          14 0 2 1 2.</_></rects>
      <tilted>0</tilted></_>
    <_>
      <rects>
        <_>
          12 0 2 15 -1.</_>
        <_>
          12 5 2 5 3.</_></rects>
      <tilted>0</tilted></_>
    <_>
      <rects>
        <_>
          12 0 8 5 -1.</_>
        <_>
          14 2 4 5 2.</_></rects>
      <tilted>1</tilted></_>
    <_>
      <rects>
        <_>
          12 0 15 3 -1.</_>
        <_>
          12 1 15 1 3.</_></rects>
      <tilted>0</tilted></_>
    <_>
      <rects>
        <_>
          12 2 16 19 -1.</_>
        <_>
          16 2 8 19 2.</_></rects>
      <tilted>0</tilted></_>
    <_>
      <rects>
        <_>
          12 4 6 10 -1.</_>
        <_>
          12 9 6 5 2.</_></rects>
      <tilted>0</tilted></_>
    <_>
      <rects>
        <_>
          12 5 4 11 -1.</_>
        <_>
          13 5 2 11 2.</_></rects>
      <tilted>0</tilted></_>
    <_>
      <rects>
        <_>
          12 7 3 7 -1.</_>
        <_>
          13 7 1 7 3.</_></rects>
      <tilted>0</tilted></_>
    <_>
      <rects>
        <_>
          12 13 15 18 -1.</_>
        <_>
          12 22 15 9 2.</_></rects>
      <tilted>0</tilted></_>
    <_>
      <rects>
        <_>
          12 14 6 6 -1.</_>
        <_>
          12 16 6 2 3.</_></rects>
      <tilted>0</tilted></_>
    <_>
      <rects>
        <_>
          12 16 9 7 -1.</_>
        <_>
          15 16 3 7 3.</_></rects>
      <tilted>0</tilted></_>
    <_>
      <rects>
        <_>
          12 16 16 10 -1.</_>
        <_>
          20 16 8 10 2.</_></rects>
      <tilted>0</tilted></_>
    <_>
      <rects>
        <_>
          12 18 6 10 -1.</_>
        <_>
          12 18 6 5 2.</_></rects>
      <tilted>1</tilted></_>
    <_>
      <rects>
        <_>
          12 19 15 18 -1.</_>
        <_>
          12 25 15 6 3.</_></rects>
      <tilted>0</tilted></_>
    <_>
      <rects>
        <_>
          12 21 2 6 -1.</_>
        <_>
          12 23 2 2 3.</_></rects>
      <tilted>0</tilted></_>
    <_>
      <rects>
        <_>
          12 23 23 10 -1.</_>
        <_>
          12 28 23 5 2.</_></rects>
      <tilted>0</tilted></_>
    <_>
      <rects>
        <_>
          13 0 8 13 -1.</_>
        <_>
          15 2 4 13 2.</_></rects>
      <tilted>1</tilted></_>
    <_>
      <rects>
        <_>
          13 8 9 6 -1.</_>
        <_>
          16 11 3 6 3.</_></rects>
      <tilted>1</tilted></_>
    <_>
      <rects>
        <_>
          13 11 4 2 -1.</_>
        <_>
          14 11 2 2 2.</_></rects>
      <tilted>0</tilted></_>
    <_>
      <rects>
        <_>
          13 12 16 4 -1.</_>
        <_>
          17 16 8 4 2.</_></rects>
      <tilted>1</tilted></_>
    <_>
      <rects>
        <_>
          13 13 12 6 -1.</_>
        <_>
          17 15 4 2 9.</_></rects>
      <tilted>0</tilted></_>
    <_>
      <rects>
        <_>
          13 15 6 8 -1.</_>
        <_>
          15 15 2 8 3.</_></rects>
      <tilted>0</tilted></_>
    <_>
      <rects>
        <_>
          13 17 18 7 -1.</_>
        <_>
          22 17 9 7 2.</_></rects>
      <tilted>0</tilted></_>
    <_>
      <rects>
        <_>
          13 19 1 3 -1.</_>
        <_>
          13 20 1 1 3.</_></rects>
      <tilted>0</tilted></_>
    <_>
      <rects>
        <_>
          13 28 6 6 -1.</_>
        <_>
          11 30 6 2 3.</_></rects>
      <tilted>1</tilted></_>
    <_>
      <rects>
        <_>
          14 1 9 15 -1.</_>
        <_>
          14 6 9 5 3.</_></rects>
      <tilted>0</tilted></_>
    <_>
      <rects>
        <_>
          14 3 6 10 -1.</_>
        <_>
          16 3 2 10 3.</_></rects>
      <tilted>0</tilted></_>
    <_>
      <rects>
        <_>
          14 3 11 12 -1.</_>
        <_>
          14 6 11 6 2.</_></rects>
      <tilted>0</tilted></_>
    <_>
      <rects>
        <_>
          14 6 11 12 -1.</_>
        <_>
          14 10 11 4 3.</_></rects>
      <tilted>0</tilted></_>
    <_>
      <rects>
        <_>
          14 17 6 8 -1.</_>
        <_>
          14 17 3 4 2.</_>
        <_>
          17 21 3 4 2.</_></rects>
      <tilted>0</tilted></_>
    <_>
      <rects>
        <_>
          14 33 16 1 -1.</_>
        <_>
          18 33 8 1 2.</_></rects>
      <tilted>0</tilted></_>
    <_>
      <rects>
        <_>
          15 0 15 1 -1.</_>
        <_>
          20 0 5 1 3.</_></rects>
      <tilted>0</tilted></_>
    <_>
      <rects>
        <_>
          15 0 22 18 -1.</_>
        <_>
          15 0 11 9 2.</_>
        <_>
          26 9 11 9 2.</_></rects>
      <tilted>0</tilted></_>
    <_>
      <rects>
        <_>
          15 2 4 5 -1.</_>
        <_>
          16 2 2 5 2.</_></rects>
      <tilted>0</tilted></_>
    <_>
      <rects>
        <_>
          15 10 18 27 -1.</_>
        <_>
          24 10 9 27 2.</_></rects>
      <tilted>0</tilted></_>
    <_>
      <rects>
        <_>
          15 19 6 6 -1.</_>
        <_>
          15 19 3 3 2.</_>
        <_>
          18 22 3 3 2.</_></rects>
      <tilted>0</tilted></_>
    <_>
      <rects>
        <_>
          15 19 7 6 -1.</_>
        <_>
          15 21 7 2 3.</_></rects>
      <tilted>0</tilted></_>
    <_>
      <rects>
        <_>
          15 21 13 2 -1.</_>
        <_>
          15 22 13 1 2.</_></rects>
      <tilted>0</tilted></_>
    <_>
      <rects>
        <_>
          16 1 2 10 -1.</_>
        <_>
          16 1 1 10 2.</_></rects>
      <tilted>1</tilted></_>
    <_>
      <rects>
        <_>
          16 3 24 14 -1.</_>
        <_>
          16 3 12 7 2.</_>
        <_>
          28 10 12 7 2.</_></rects>
      <tilted>0</tilted></_>
    <_>
      <rects>
        <_>
          16 14 4 10 -1.</_>
        <_>
          17 14 2 10 2.</_></rects>
      <tilted>0</tilted></_>
    <_>
      <rects>
        <_>
          17 7 4 2 -1.</_>
        <_>
          18 7 2 2 2.</_></rects>
      <tilted>0</tilted></_>
    <_>
      <rects>
        <_>
          17 8 9 12 -1.</_>
        <_>
          17 12 9 4 3.</_></rects>
      <tilted>0</tilted></_>
    <_>
      <rects>
        <_>
          17 19 5 2 -1.</_>
        <_>
          17 20 5 1 2.</_></rects>
      <tilted>0</tilted></_>
    <_>
      <rects>
        <_>
          17 19 8 4 -1.</_>
        <_>
          17 21 8 2 2.</_></rects>
      <tilted>0</tilted></_>
    <_>
      <rects>
        <_>
          17 20 9 2 -1.</_>
        <_>
          20 20 3 2 3.</_></rects>
      <tilted>0</tilted></_>
    <_>
      <rects>
        <_>
          18 1 4 11 -1.</_>
        <_>
          19 1 2 11 2.</_></rects>
      <tilted>0</tilted></_>
    <_>
      <rects>
        <_>
          18 5 3 9 -1.</_>
        <_>
          19 5 1 9 3.</_></rects>
      <tilted>0</tilted></_>
    <_>
      <rects>
        <_>
          18 10 3 4 -1.</_>
        <_>
          19 10 1 4 3.</_></rects>
      <tilted>0</tilted></_>
    <_>
      <rects>
        <_>
          18 13 8 18 -1.</_>
        <_>
          18 13 4 9 2.</_>
        <_>
          22 22 4 9 2.</_></rects>
      <tilted>0</tilted></_>
    <_>
      <rects>
        <_>
          18 14 9 14 -1.</_>
        <_>
          18 21 9 7 2.</_></rects>
      <tilted>0</tilted></_>
    <_>
      <rects>
        <_>
          18 17 6 1 -1.</_>
        <_>
          20 19 2 1 3.</_></rects>
      <tilted>1</tilted></_>
    <_>
      <rects>
        <_>
          18 18 6 4 -1.</_>
        <_>
          18 20 6 2 2.</_></rects>
      <tilted>0</tilted></_>
    <_>
      <rects>
        <_>
          18 19 12 4 -1.</_>
        <_>
          22 19 4 4 3.</_></rects>
      <tilted>0</tilted></_>
    <_>
      <rects>
        <_>
          18 29 8 9 -1.</_>
        <_>
          18 32 8 3 3.</_></rects>
      <tilted>0</tilted></_>
    <_>
      <rects>
        <_>
          19 0 12 4 -1.</_>
        <_>
          19 0 6 2 2.</_>
        <_>
          25 2 6 2 2.</_></rects>
      <tilted>0</tilted></_>
    <_>
      <rects>
        <_>
          19 8 6 14 -1.</_>
        <_>
          22 8 3 14 2.</_></rects>
      <tilted>0</tilted></_>
    <_>
      <rects>
        <_>
          19 11 10 12 -1.</_>
        <_>
          24 11 5 12 2.</_></rects>
      <tilted>0</tilted></_>
    <_>
      <rects>
        <_>
          19 16 6 8 -1.</_>
        <_>
          19 16 6 4 2.</_></rects>
      <tilted>1</tilted></_>
    <_>
      <rects>
        <_>
          20 0 6 6 -1.</_>
        <_>
          22 0 2 6 3.</_></rects>
      <tilted>0</tilted></_>
    <_>
      <rects>
        <_>
          20 2 6 14 -1.</_>
        <_>
          22 2 2 14 3.</_></rects>
      <tilted>0</tilted></_>
    <_>
      <rects>
        <_>
          20 10 20 2 -1.</_>
        <_>
          25 10 10 2 2.</_></rects>
      <tilted>0</tilted></_>
    <_>
      <rects>
        <_>
          20 11 6 5 -1.</_>
        <_>
          22 11 2 5 3.</_></rects>
      <tilted>0</tilted></_>
    <_>
      <rects>
        <_>
          20 16 8 7 -1.</_>
        <_>
          22 16 4 7 2.</_></rects>
      <tilted>0</tilted></_>
    <_>
      <rects>
        <_>
          21 20 3 2 -1.</_>
        <_>
          21 21 3 1 2.</_></rects>
      <tilted>0</tilted></_>
    <_>
      <rects>
        <_>
          21 28 14 2 -1.</_>
        <_>
          28 28 7 2 2.</_></rects>
      <tilted>0</tilted></_>
    <_>
      <rects>
        <_>
          22 0 18 14 -1.</_>
        <_>
          22 0 9 7 2.</_>
        <_>
          31 7 9 7 2.</_></rects>
      <tilted>0</tilted></_>
    <_>
      <rects>
        <_>
          22 8 2 7 -1.</_>
        <_>
          23 8 1 7 2.</_></rects>
      <tilted>0</tilted></_>
    <_>
      <rects>
        <_>
          22 11 6 4 -1.</_>
        <_>
          24 13 2 4 3.</_></rects>
      <tilted>1</tilted></_>
    <_>
      <rects>
        <_>
          22 25 5 4 -1.</_>
        <_>
          22 27 5 2 2.</_></rects>
      <tilted>0</tilted></_>
    <_>
      <rects>
        <_>
          23 7 3 6 -1.</_>
        <_>
          24 7 1 6 3.</_></rects>
      <tilted>0</tilted></_>
    <_>
      <rects>
        <_>
          23 9 4 8 -1.</_>
        <_>
          25 9 2 8 2.</_></rects>
      <tilted>0</tilted></_>
    <_>
      <rects>
        <_>
          23 10 5 20 -1.</_>
        <_>
          23 20 5 10 2.</_></rects>
      <tilted>0</tilted></_>
    <_>
      <rects>
        <_>
          23 12 3 5 -1.</_>
        <_>
          24 13 1 5 3.</_></rects>
      <tilted>1</tilted></_>
    <_>
      <rects>
        <_>
          23 18 6 12 -1.</_>
        <_>
          25 22 2 4 9.</_></rects>
      <tilted>0</tilted></_>
    <_>
      <rects>
        <_>
          24 6 9 30 -1.</_>
        <_>
          27 16 3 10 9.</_></rects>
      <tilted>0</tilted></_>
    <_>
      <rects>
        <_>
          24 18 8 20 -1.</_>
        <_>
          24 28 8 10 2.</_></rects>
      <tilted>0</tilted></_>
    <_>
      <rects>
        <_>
          24 24 4 4 -1.</_>
        <_>
          25 24 2 4 2.</_></rects>
      <tilted>0</tilted></_>
    <_>
      <rects>
        <_>
          25 0 2 1 -1.</_>
        <_>
          26 0 1 1 2.</_></rects>
      <tilted>0</tilted></_>
    <_>
      <rects>
        <_>
          25 0 6 6 -1.</_>
        <_>
          27 2 2 2 9.</_></rects>
      <tilted>0</tilted></_>
    <_>
      <rects>
        <_>
          25 0 12 22 -1.</_>
        <_>
          25 0 6 11 2.</_>
        <_>
          31 11 6 11 2.</_></rects>
      <tilted>0</tilted></_>
    <_>
      <rects>
        <_>
          25 2 4 15 -1.</_>
        <_>
          27 2 2 15 2.</_></rects>
      <tilted>0</tilted></_>
    <_>
      <rects>
        <_>
          25 5 8 23 -1.</_>
        <_>
          27 5 4 23 2.</_></rects>
      <tilted>0</tilted></_>
    <_>
      <rects>
        <_>
          25 8 4 1 -1.</_>
        <_>
          26 9 2 1 2.</_></rects>
      <tilted>1</tilted></_>
    <_>
      <rects>
        <_>
          25 8 3 9 -1.</_>
        <_>
          26 8 1 9 3.</_></rects>
      <tilted>0</tilted></_>
    <_>
      <rects>
        <_>
          25 11 1 9 -1.</_>
        <_>
          25 14 1 3 3.</_></rects>
      <tilted>0</tilted></_>
    <_>
      <rects>
        <_>
          25 11 2 4 -1.</_>
        <_>
          26 11 1 4 2.</_></rects>
      <tilted>0</tilted></_>
    <_>
      <rects>
        <_>
          25 12 12 11 -1.</_>
        <_>
          29 12 4 11 3.</_></rects>
      <tilted>0</tilted></_>
    <_>
      <rects>
        <_>
          25 14 6 9 -1.</_>
        <_>
          27 16 2 9 3.</_></rects>
      <tilted>1</tilted></_>
    <_>
      <rects>
        <_>
          25 16 12 5 -1.</_>
        <_>
          29 20 4 5 3.</_></rects>
      <tilted>1</tilted></_>
    <_>
      <rects>
        <_>
          26 0 14 2 -1.</_>
        <_>
          26 0 14 1 2.</_></rects>
      <tilted>1</tilted></_>
    <_>
      <rects>
        <_>
          26 1 3 26 -1.</_>
        <_>
          27 1 1 26 3.</_></rects>
      <tilted>0</tilted></_>
    <_>
      <rects>
        <_>
          26 9 3 16 -1.</_>
        <_>
          27 9 1 16 3.</_></rects>
      <tilted>0</tilted></_>
    <_>
      <rects>
        <_>
          26 21 3 9 -1.</_>
        <_>
          27 21 1 9 3.</_></rects>
      <tilted>0</tilted></_>
    <_>
      <rects>
        <_>
          26 24 10 3 -1.</_>
        <_>
          31 24 5 3 2.</_></rects>
      <tilted>0</tilted></_>
    <_>
      <rects>
        <_>
          26 27 14 12 -1.</_>
        <_>
          26 27 7 6 2.</_>
        <_>
          33 33 7 6 2.</_></rects>
      <tilted>0</tilted></_>
    <_>
      <rects>
        <_>
          27 4 8 24 -1.</_>
        <_>
          31 4 4 24 2.</_></rects>
      <tilted>0</tilted></_>
    <_>
      <rects>
        <_>
          27 8 3 3 -1.</_>
        <_>
          28 9 1 3 3.</_></rects>
      <tilted>1</tilted></_>
    <_>
      <rects>
        <_>
          27 9 4 7 -1.</_>
        <_>
          29 9 2 7 2.</_></rects>
      <tilted>0</tilted></_>
    <_>
      <rects>
        <_>
          27 11 2 5 -1.</_>
        <_>
          28 11 1 5 2.</_></rects>
      <tilted>0</tilted></_>
    <_>
      <rects>
        <_>
          27 14 4 5 -1.</_>
        <_>
          28 14 2 5 2.</_></rects>
      <tilted>0</tilted></_>
    <_>
      <rects>
        <_>
          27 14 4 14 -1.</_>
        <_>
          28 14 2 14 2.</_></rects>
      <tilted>0</tilted></_>
    <_>
      <rects>
        <_>
          27 23 3 7 -1.</_>
        <_>
          28 23 1 7 3.</_></rects>
      <tilted>0</tilted></_>
    <_>
      <rects>
        <_>
          27 24 8 7 -1.</_>
        <_>
          31 24 4 7 2.</_></rects>
      <tilted>0</tilted></_>
    <_>
      <rects>
        <_>
          27 31 9 9 -1.</_>
        <_>
          30 34 3 3 9.</_></rects>
      <tilted>0</tilted></_>
    <_>
      <rects>
        <_>
          28 2 11 6 -1.</_>
        <_>
          28 2 11 3 2.</_></rects>
      <tilted>1</tilted></_>
    <_>
      <rects>
        <_>
          28 6 4 2 -1.</_>
        <_>
          29 7 2 2 2.</_></rects>
      <tilted>1</tilted></_>
    <_>
      <rects>
        <_>
          28 10 2 5 -1.</_>
        <_>
          29 10 1 5 2.</_></rects>
      <tilted>0</tilted></_>
    <_>
      <rects>
        <_>
          28 18 6 15 -1.</_>
        <_>
          31 18 3 15 2.</_></rects>
      <tilted>0</tilted></_>
    <_>
      <rects>
        <_>
          28 20 9 6 -1.</_>
        <_>
          28 22 9 2 3.</_></rects>
      <tilted>0</tilted></_>
    <_>
      <rects>
        <_>
          29 20 8 20 -1.</_>
        <_>
          29 20 4 10 2.</_>
        <_>
          33 30 4 10 2.</_></rects>
      <tilted>0</tilted></_>
    <_>
      <rects>
        <_>
          30 0 2 1 -1.</_>
        <_>
          31 0 1 1 2.</_></rects>
      <tilted>0</tilted></_>
    <_>
      <rects>
        <_>
          30 2 10 9 -1.</_>
        <_>
          27 5 10 3 3.</_></rects>
      <tilted>1</tilted></_>
    <_>
      <rects>
        <_>
          30 5 4 6 -1.</_>
        <_>
          31 6 2 6 2.</_></rects>
      <tilted>1</tilted></_>
    <_>
      <rects>
        <_>
          30 5 10 9 -1.</_>
        <_>
          27 8 10 3 3.</_></rects>
      <tilted>1</tilted></_>
    <_>
      <rects>
        <_>
          30 11 10 1 -1.</_>
        <_>
          35 11 5 1 2.</_></rects>
      <tilted>0</tilted></_>
    <_>
      <rects>
        <_>
          31 2 8 2 -1.</_>
        <_>
          31 2 4 1 2.</_>
        <_>
          35 3 4 1 2.</_></rects>
      <tilted>0</tilted></_>
    <_>
      <rects>
        <_>
          31 4 3 5 -1.</_>
        <_>
          32 5 1 5 3.</_></rects>
      <tilted>1</tilted></_>
    <_>
      <rects>
        <_>
          31 5 8 2 -1.</_>
        <_>
          31 5 8 1 2.</_></rects>
      <tilted>1</tilted></_>
    <_>
      <rects>
        <_>
          31 11 4 6 -1.</_>
        <_>
          31 13 4 2 3.</_></rects>
      <tilted>0</tilted></_>
    <_>
      <rects>
        <_>
          31 12 8 17 -1.</_>
        <_>
          33 12 4 17 2.</_></rects>
      <tilted>0</tilted></_>
    <_>
      <rects>
        <_>
          31 13 5 4 -1.</_>
        <_>
          31 14 5 2 2.</_></rects>
      <tilted>0</tilted></_>
    <_>
      <rects>
        <_>
          31 15 3 4 -1.</_>
        <_>
          31 16 3 2 2.</_></rects>
      <tilted>0</tilted></_>
    <_>
      <rects>
        <_>
          31 19 4 8 -1.</_>
        <_>
          29 21 4 4 2.</_></rects>
      <tilted>1</tilted></_>
    <_>
      <rects>
        <_>
          32 0 2 2 -1.</_>
        <_>
          32 0 1 1 2.</_>
        <_>
          33 1 1 1 2.</_></rects>
      <tilted>0</tilted></_>
    <_>
      <rects>
        <_>
          32 0 5 2 -1.</_>
        <_>
          32 1 5 1 2.</_></rects>
      <tilted>0</tilted></_>
    <_>
      <rects>
        <_>
          32 2 7 9 -1.</_>
        <_>
          29 5 7 3 3.</_></rects>
      <tilted>1</tilted></_>
    <_>
      <rects>
        <_>
          32 9 3 2 -1.</_>
        <_>
          32 9 3 1 2.</_></rects>
      <tilted>1</tilted></_>
    <_>
      <rects>
        <_>
          32 24 6 8 -1.</_>
        <_>
          34 26 2 8 3.</_></rects>
      <tilted>1</tilted></_>
    <_>
      <rects>
        <_>
          32 26 6 7 -1.</_>
        <_>
          34 28 2 7 3.</_></rects>
      <tilted>1</tilted></_>
    <_>
      <rects>
        <_>
          33 9 6 2 -1.</_>
        <_>
          33 9 6 1 2.</_></rects>
      <tilted>1</tilted></_>
    <_>
      <rects>
        <_>
          33 10 2 10 -1.</_>
        <_>
          33 10 1 5 2.</_>
        <_>
          34 15 1 5 2.</_></rects>
      <tilted>0</tilted></_>
    <_>
      <rects>
        <_>
          33 20 3 6 -1.</_>
        <_>
          33 23 3 3 2.</_></rects>
      <tilted>0</tilted></_>
    <_>
      <rects>
        <_>
          34 4 3 33 -1.</_>
        <_>
          35 15 1 11 9.</_></rects>
      <tilted>0</tilted></_>
    <_>
      <rects>
        <_>
          34 6 6 9 -1.</_>
        <_>
          31 9 6 3 3.</_></rects>
      <tilted>1</tilted></_>
    <_>
      <rects>
        <_>
          34 15 6 15 -1.</_>
        <_>
          37 15 3 15 2.</_></rects>
      <tilted>0</tilted></_>
    <_>
      <rects>
        <_>
          34 18 4 8 -1.</_>
        <_>
          34 18 2 4 2.</_>
        <_>
          36 22 2 4 2.</_></rects>
      <tilted>0</tilted></_>
    <_>
      <rects>
        <_>
          34 20 4 8 -1.</_>
        <_>
          34 20 2 4 2.</_>
        <_>
          36 24 2 4 2.</_></rects>
      <tilted>0</tilted></_>
    <_>
      <rects>
        <_>
          34 29 2 8 -1.</_>
        <_>
          34 29 1 4 2.</_>
        <_>
          35 33 1 4 2.</_></rects>
      <tilted>0</tilted></_>
    <_>
      <rects>
        <_>
          35 0 4 1 -1.</_>
        <_>
          37 0 2 1 2.</_></rects>
      <tilted>0</tilted></_>
    <_>
      <rects>
        <_>
          35 1 4 10 -1.</_>
        <_>
          35 1 4 5 2.</_></rects>
      <tilted>1</tilted></_>
    <_>
      <rects>
        <_>
          35 4 3 4 -1.</_>
        <_>
          35 6 3 2 2.</_></rects>
      <tilted>0</tilted></_>
    <_>
      <rects>
        <_>
          35 15 4 20 -1.</_>
        <_>
          35 15 2 10 2.</_>
        <_>
          37 25 2 10 2.</_></rects>
      <tilted>0</tilted></_>
    <_>
      <rects>
        <_>
          35 21 3 4 -1.</_>
        <_>
          36 21 1 4 3.</_></rects>
      <tilted>0</tilted></_>
    <_>
      <rects>
        <_>
          36 22 3 2 -1.</_>
        <_>
          37 22 1 2 3.</_></rects>
      <tilted>0</tilted></_>
    <_>
      <rects>
        <_>
          37 0 2 15 -1.</_>
        <_>
          32 5 2 5 3.</_></rects>
      <tilted>1</tilted></_>
    <_>
      <rects>
        <_>
          37 6 3 9 -1.</_>
        <_>
          34 9 3 3 3.</_></rects>
      <tilted>1</tilted></_>
    <_>
      <rects>
        <_>
          37 17 2 8 -1.</_>
        <_>
          37 17 1 4 2.</_>
        <_>
          38 21 1 4 2.</_></rects>
      <tilted>0</tilted></_>
    <_>
      <rects>
        <_>
          38 10 2 12 -1.</_>
        <_>
          35 13 2 6 2.</_></rects>
      <tilted>1</tilted></_></features></cascade>
</opencv_storage>
